digraph Tree {
node [shape=box, style="filled, rounded", color="black", fontname="helvetica"] ;
edge [fontname="helvetica"] ;
0 [label="MaritalStatus <= 1.5\ngini = 0.55\nsamples = 700\nvalue = [416, 12, 11, 50, 211]\nclass = Homeowner", fillcolor="#f4caac"] ;
1 [label="Compensation <= 2.5\ngini = 0.387\nsamples = 372\nvalue = [286, 8, 2, 41, 35]\nclass = Homeowner", fillcolor="#eca26c"] ;
0 -> 1 [labeldistance=2.5, labelangle=45, headlabel="True"] ;
2 [label="gini = 0.272\nsamples = 262\nvalue = [222, 8, 0, 24, 8]\nclass = Homeowner", fillcolor="#e9965a"] ;
1 -> 2 ;
3 [label="gini = 0.577\nsamples = 110\nvalue = [64, 0, 2, 17, 27]\nclass = Homeowner", fillcolor="#f3c7a7"] ;
1 -> 3 ;
4 [label="AgeGroups <= 2.5\ngini = 0.553\nsamples = 328\nvalue = [130, 4, 9, 9, 176]\nclass = Unknown", fillcolor="#f9d1f0"] ;
0 -> 4 [labeldistance=2.5, labelangle=-45, headlabel="False"] ;
5 [label="gini = 0.464\nsamples = 142\nvalue = [37, 3, 3, 2, 97]\nclass = Unknown", fillcolor="#f08edb"] ;
4 -> 5 ;
6 [label="gini = 0.567\nsamples = 186\nvalue = [93, 1, 6, 7, 79]\nclass = Homeowner", fillcolor="#fcefe5"] ;
4 -> 6 ;
}